// DO NOT EDIT: Auto-generated actor network weights
// Source: actor.onnx
// Generated by onnx_dnn_to_c.py
//
// Usage (ESP32 Arduino):
//   #include "actor.h"
//   float obs[4]    = {pitch, pitch_rate, wheel_vel_l, wheel_vel_r};
//   float action[2];
//   actor_forward(obs, action);
//   // clamp to [-1, 1] before sending to motors

#pragma once
#include <math.h>  // for tanhf()

#define ACTOR_OBS_SIZE    4
#define ACTOR_ACTION_SIZE 2
#define ACTOR_NUM_LAYERS  3

// Shape: 32 x 4
static const float layer0_weight[128] = {
    -0.13031299f, -0.05370913f, 0.27934548f, -0.13092098f, 0.64494646f, -0.50754058f, -0.15558660f, 0.01569025f, 0.32872865f, -0.27840129f, -0.32646769f, 0.25869972f, -0.82200778f, -0.04375727f, -0.02545359f, 0.08579342f, 0.40871218f, -0.32254675f, 0.22989431f, -0.15806432f, -0.34448746f, 0.19690363f, -0.19134112f, 0.15297215f, -1.70034838f, -0.33921483f, -0.05050786f, -0.01713010f, 0.01206917f, 0.01263280f, -0.25526720f, 0.26450974f, 1.59490108f, -0.17587830f, -0.00812099f, 0.06015393f, -0.52863955f, -0.05312008f, 0.17427647f, -0.06242235f, -0.26931503f, 0.15954494f, 0.33805454f, -0.15092666f, -0.10759774f, -0.00317385f, -0.27383140f, 0.29195705f, -0.18533394f, -0.44298369f, -0.34597021f, -0.08099052f, -0.27378801f, 0.06823466f, 0.34731692f, -0.21762341f, 0.66658723f, 0.12745306f, 0.11218391f, -0.18876520f, 1.04157293f, -0.03612892f, 0.13046312f, -0.17954049f, 0.91375571f, 0.09788696f, 0.19045180f, -0.19258827f, 0.48391056f, 0.06377938f, 0.02389339f, 0.25184047f, -0.32293844f, 0.04183996f, -0.10540285f, -0.07700194f, 1.22997570f, -0.06086707f, -0.01900063f, 0.03838611f, 0.68064040f, 0.03167738f, -0.17485659f, 0.05202208f, -0.58539116f, -0.03591582f, -0.18651287f, 0.11429391f, 0.34465393f, -0.17861359f, -0.11831775f, 0.10467145f, -0.09746019f, 0.41072753f, -0.10556959f, 0.17287199f, 0.33794409f, 0.55755281f, 0.27753460f, 0.38212359f, -0.23903559f, 0.08745769f, -0.53331655f, -0.26315591f, 0.72712964f, 0.41782635f, 0.31698313f, -0.06645300f, 0.77084774f, 0.59237921f, -0.07209782f, 0.13916700f, 1.77604985f, 0.32024521f, 0.05880862f, 0.03190767f, 0.47675544f, -0.13250241f, 0.07778945f, -0.08877290f, -0.03101507f, 0.00175309f, -0.07649630f, 0.01994460f, -1.20136142f, -0.15293755f, -0.01485853f, -0.02495539f
};

// Shape: 32
static const float layer0_bias[32] = {
    -0.02905689f, -0.01840975f, 0.06789610f, 0.04597421f, -0.07430384f, 0.00445819f, -0.00931417f, 0.02308226f, 0.02702669f, 0.00127556f, -0.02629031f, -0.00026636f, -0.04938480f, -0.03523726f, -0.00342366f, -0.01719218f, -0.02432521f, 0.00285084f, 0.01549674f, -0.01764939f, -0.05200461f, 0.01529256f, 0.02325648f, 0.00170035f, -0.06613867f, -0.02414248f, -0.06100955f, -0.09737178f, 0.01836930f, -0.01341138f, 0.02093455f, -0.01580350f
};

// Shape: 32 x 32
static const float layer1_weight[1024] = {
    -0.14450841f, -0.21809362f, -0.26733303f, 0.19946544f, 0.12762430f, -0.19500871f, -0.16538319f, -0.15114400f, 0.59149438f, 0.36279222f, 0.05313891f, 0.22863691f, -0.07094719f, -0.11029528f, -0.30650797f, -0.42933416f, 0.31950495f, 0.05566209f, 0.09312310f, 0.16105276f, -0.12661953f, 0.25677919f, 0.20273075f, 0.08687467f, 0.00916660f, 0.30765691f, -0.02643110f, -0.31492400f, 0.17184396f, -0.21880937f, 0.39296022f, -0.02197613f, -0.31958410f, 0.32059336f, -0.38867760f, -0.03154790f, -0.01995521f, -0.16305840f, -0.48848709f, 0.28569475f, -0.13174571f, 0.32605502f, -0.06753149f, 0.09956269f, 0.33041209f, 0.45672497f, -0.05311589f, 0.04097915f, -0.44753650f, -0.14176503f, -0.19829422f, -0.02073994f, 0.06212343f, 0.18013826f, 0.01104408f, -0.23648873f, -0.12827867f, -0.29218680f, -0.01601921f, 0.32218602f, -0.11776370f, -0.04749662f, -0.06720075f, 0.10242424f, 0.03770683f, 0.18815045f, 0.32919258f, -0.25262219f, 0.12708591f, -0.02062666f, -0.47751510f, -0.09973288f, 0.21398951f, -0.38035008f, -0.07179292f, -0.06235492f, -0.47336113f, 0.03230976f, -0.13956662f, 0.00418224f, -0.02301823f, -0.08508954f, -0.24931203f, 0.00965158f, -0.49852681f, 0.49042067f, 0.48013210f, 0.23210278f, 0.00490364f, 0.17199692f, -0.25599003f, 0.19316012f, 0.03739354f, 0.02723818f, -0.28899497f, 0.07641885f, 0.57435644f, -0.09556252f, -0.02988438f, 0.19062269f, -0.36346686f, 0.28195503f, -0.17688058f, 0.40625513f, 0.18435863f, -0.12908688f, 0.18293238f, -0.29503444f, 0.49248141f, 0.02869044f, -0.09374175f, -0.34824088f, 0.12963873f, -0.33601585f, -0.36568171f, -0.04180111f, 0.04963141f, 0.04156590f, 0.05478423f, -0.02796741f, 0.22372399f, 0.11117204f, -0.03644557f, -0.25655234f, 0.32321951f, 0.28270906f, -0.34107089f, -0.11015753f, 0.00855820f, 0.00373705f, 0.09658889f, 0.30327880f, 0.34382185f, 0.47694880f, -0.11975951f, 0.15460989f, 0.26750818f, -0.04857679f, 0.17113017f, 0.00831718f, -0.12730274f, 0.32655674f, -0.29143307f, 0.12008764f, 0.21669488f, -0.28638387f, 0.21479723f, 0.12326117f, 0.17709036f, -0.35987043f, 0.10785943f, -0.08230833f, -0.02295721f, -0.06354753f, -0.55316311f, 0.11727805f, -0.06832486f, -0.24020617f, -0.15792203f, -0.54566324f, 0.04151270f, -0.36316389f, 0.38050446f, 0.02797495f, -0.15747316f, -0.17533326f, -0.17489086f, -0.38008246f, -0.20737882f, 0.17401309f, 0.15299773f, 0.07579184f, 0.28137615f, -0.32550526f, -0.29319239f, 0.36708030f, 0.23729146f, -0.31164175f, -0.36933559f, 0.16372722f, -0.02608528f, -0.16601764f, 0.11629874f, 0.15915132f, 0.11897942f, -0.03560783f, -0.00142565f, 0.04496022f, -0.17966400f, -0.27411020f, 0.02367507f, 0.45334846f, -0.01297223f, 0.09091716f, 0.03266639f, 0.27299950f, 0.03382340f, -0.19500525f, -0.24140526f, -0.00617781f, -0.42546099f, -0.27499166f, -0.39368200f, -0.17023018f, -0.00382142f, 0.06992875f, -0.51737714f, 0.35326210f, -0.29673061f, 0.02595401f, 0.37489665f, -0.12909804f, -0.24117589f, -0.28249440f, 0.08102825f, 0.35505700f, 0.13344385f, 0.12790146f, 0.30674645f, -0.29040629f, 0.04342650f, 0.36740527f, 0.06415287f, -0.16293254f, 0.27989152f, -0.08626852f, -0.03778469f, -0.14080633f, 0.01026390f, 0.37552682f, -0.18813887f, -0.06765352f, -0.33510172f, 0.37938893f, -0.25663397f, -0.17549999f, -0.13664329f, -0.21420774f, -0.16750930f, -0.52105647f, 0.33758846f, -0.30374807f, 0.29181117f, -0.12321380f, -0.16701575f, 0.27696729f, -0.43249169f, 0.03010339f, -0.18227306f, -0.26054448f, -0.12439863f, 0.00239260f, -0.52562010f, -0.13957953f, -0.02822720f, -0.06816270f, -0.01331078f, -0.19240569f, 0.11710455f, 0.24242362f, -0.05198901f, -0.49654847f, 0.30944294f, -0.11895180f, -0.14372285f, 0.10808676f, -0.38224554f, -0.54252684f, -0.31184140f, 0.45451844f, -0.17337431f, 0.29880545f, 0.16670662f, -0.43197349f, 0.15861952f, -0.24196991f, 0.32105556f, 0.08832587f, 0.07919017f, -0.15720358f, 0.09795745f, -0.24454536f, -0.31007943f, -0.10150682f, -0.25281003f, 0.25294021f, 0.00598541f, 0.62215680f, 0.00681762f, -0.15983745f, -0.02168560f, -0.15804747f, 0.29457614f, -0.10772638f, -0.10643163f, 0.11289302f, -0.08186632f, -0.34075555f, 0.30702394f, -0.33196703f, 0.03604299f, -0.11641790f, -0.60913700f, -0.34959027f, -0.19519246f, 0.39399940f, 0.17492083f, -0.13212128f, 0.04864118f, -0.03187101f, -0.26484713f, -0.33510238f, 0.00516648f, 0.24040881f, 0.00835498f, 0.04095950f, 0.37573069f, -0.39130864f, -0.16200146f, 0.35383210f, 0.52891785f, 0.28512159f, 0.30278042f, -0.47780401f, -0.19739576f, 0.31921580f, 0.18672156f, -0.14915058f, -0.11508757f, 0.48873401f, -0.17064808f, -0.26548797f, -0.07961287f, 0.12265836f, 0.01198454f, 0.21455166f, -0.24401556f, 0.10892018f, -0.06586113f, -0.18950655f, 0.19511731f, -0.00390380f, 0.11789131f, 0.15062426f, -0.11390205f, -0.00487706f, 0.07604095f, -0.02425560f, 0.24000655f, -0.58219004f, 0.10083859f, -0.11564334f, -0.30722588f, -0.29718119f, 0.35083011f, 0.11327153f, 0.28398505f, 0.40735775f, -0.21247439f, 0.24600616f, -0.05624459f, 0.21494517f, 0.03113679f, 0.05135208f, -0.12647100f, -0.14200938f, -0.11719740f, -0.32737112f, -0.30237654f, -0.48434353f, -0.47631857f, -0.07558425f, -0.07311402f, 0.11916710f, 0.13916582f, 0.10313628f, 0.11406112f, -0.32719964f, 0.53401506f, 0.03966732f, 0.38502800f, -0.11478526f, 0.31386763f, -0.18394144f, 0.29063612f, -0.28678653f, -0.06938982f, 0.46459189f, 0.05699063f, 0.31797016f, 0.13185920f, -0.37032670f, 0.19648959f, 0.24047154f, 0.29848546f, 0.14295621f, 0.29388839f, 0.31366259f, -0.15937831f, 0.11267834f, -0.35600099f, 0.14490879f, 0.05776102f, -0.01563629f, -0.06362134f, 0.46092227f, 0.04020672f, 0.51270074f, -0.08812436f, 0.14386159f, -0.02080204f, 0.16790345f, 0.02219004f, 0.28409171f, -0.04071855f, 0.07978699f, -0.42939100f, -0.20769252f, 0.36892956f, -0.04263377f, -0.30692998f, 0.04844873f, 0.22347942f, 0.04418981f, -0.40106142f, 0.33990738f, 0.45757061f, 0.14737205f, -0.26979941f, 0.35583687f, -0.05876520f, -0.00234701f, 0.06396509f, -0.02638664f, 0.18430297f, 0.22886546f, 0.17460699f, -0.18010661f, -0.09726796f, 0.11501643f, -0.06324970f, 0.13993458f, -0.00455816f, -0.29829371f, 0.09281895f, -0.05096590f, -0.28387427f, 0.20571715f, -0.08914980f, -0.53718042f, -0.07863890f, -0.24362934f, -0.04782626f, 0.27924496f, 0.23338978f, -0.12984802f, -0.13464910f, 0.07430845f, -0.25795296f, 0.14198992f, -0.17548762f, 0.04209572f, 0.01038790f, -0.36396426f, -0.10915178f, 0.25956517f, -0.24043366f, -0.51752955f, 0.25550294f, -0.47772419f, 0.32809892f, 0.09376635f, -0.11722866f, 0.01699087f, -0.22827221f, -0.00362762f, -0.40237999f, 0.40457165f, -0.01479060f, 0.26998171f, 0.12383194f, 0.23972355f, -0.60503376f, -0.03251688f, -0.18659829f, 0.30643246f, 0.02631651f, 0.02132091f, -0.52454180f, -0.04202652f, 0.00084249f, 0.19898878f, -0.28314683f, -0.17492004f, -0.23236704f, 0.06782541f, 0.27249485f, 0.09284487f, -0.20452151f, 0.66712558f, 0.30923185f, -0.01790775f, 0.49089849f, 0.10681641f, -0.20597893f, 0.00237860f, 0.16502917f, -0.29341674f, -0.12083054f, -0.03671853f, -0.06896883f, 0.10085542f, -0.07781677f, 0.18988767f, 0.19736241f, 0.17597246f, -0.23348443f, -0.13782096f, -0.41834167f, -0.01040000f, -0.26612771f, 0.26706010f, 0.39977297f, -0.23346463f, -0.16728063f, -0.14427812f, 0.02616595f, -0.04139777f, -0.02560697f, 0.18364598f, -0.39553761f, -0.06812765f, -0.36178002f, -0.14781439f, 0.05508225f, -0.06462154f, -0.19148923f, 0.10300852f, -0.56367147f, 0.11480747f, 0.24960436f, 0.29268435f, 0.32435170f, -0.21796367f, 0.33266428f, -0.44306910f, 0.29983306f, -0.25519639f, 0.51709962f, -0.20225500f, -0.40895742f, 0.30534264f, -0.23740070f, -0.12367586f, 0.08089568f, 0.32037997f, -0.09154819f, -0.08275427f, 0.28127331f, 0.13924325f, -0.17521624f, 0.09232493f, -0.03058760f, 0.30776337f, 0.32331187f, 0.25986320f, -0.21468648f, 0.22198616f, -0.26405579f, -0.06863059f, -0.04408579f, -0.29765782f, -0.14256069f, 0.08337808f, -0.07216839f, -0.09440383f, 0.00479781f, -0.24896425f, -0.12605070f, -0.44770423f, -0.14252159f, -0.13592827f, -0.49187031f, -0.13390431f, 0.45993197f, 0.13419683f, 0.31515524f, -0.15034547f, 0.13773356f, 0.09508113f, -0.10420790f, 0.25087067f, -0.02496338f, -0.09091611f, 0.30828360f, -0.05875259f, -0.17818458f, -0.18961158f, 0.44006136f, -0.26801464f, -0.28277498f, -0.14447977f, 0.37832436f, -0.16098356f, -0.15201576f, 0.08040490f, -0.35485581f, -0.29155394f, 0.06215430f, -0.11537609f, -0.07311898f, 0.18713298f, 0.32171735f, -0.17141539f, 0.00131656f, 0.52367163f, 0.20278388f, 0.20432928f, -0.12637706f, -0.00469615f, 0.09121910f, 0.01231703f, -0.10134650f, 0.18987316f, 0.09462356f, 0.16356453f, -0.35172084f, -0.03247025f, -0.29366371f, -0.47910821f, -0.03864281f, 0.47258028f, 0.01760282f, 0.41429222f, 0.08582999f, 0.08432990f, -0.37122571f, -0.49225330f, -0.11123102f, 0.12719159f, -0.15570730f, -0.06558041f, 0.35769957f, 0.12480381f, -0.13376459f, 0.30119726f, 0.49313322f, -0.03277671f, -0.03426349f, -0.09669271f, -0.12239251f, 0.26900214f, 0.13309807f, -0.11614344f, -0.71276444f, 0.18260328f, -0.21263354f, 0.20006493f, -0.35174647f, 0.33842802f, -0.18988803f, 0.18726294f, -0.20319948f, -0.46193433f, -0.28772825f, -0.14057460f, -0.00149945f, 0.01750668f, -0.51008868f, -0.04377953f, -0.10321760f, 0.05542416f, 0.23814805f, 0.06933894f, 0.36402559f, 0.17609145f, 0.06493711f, -0.15466230f, -0.15636295f, 0.13388446f, -0.01477300f, 0.37357765f, -0.25266296f, 0.14875872f, 0.04919261f, 0.21192656f, -0.23135501f, -0.21413782f, 0.24451382f, 0.25736070f, 0.13360792f, 0.06385870f, -0.01664523f, -0.13355502f, 0.11734216f, -0.40021166f, 0.11239833f, 0.40085027f, 0.40881875f, 0.61483240f, 0.00172251f, 0.39772120f, 0.02610547f, -0.03626917f, 0.05943175f, -0.31205100f, -0.16828288f, 0.11057314f, 0.00786420f, -0.18091261f, 0.01551325f, -0.12575693f, 0.17615013f, 0.08505831f, -0.11844674f, -0.03012309f, -0.41437909f, 0.01574762f, -0.03753712f, 0.02390578f, -0.47124854f, -0.16138829f, -0.32082388f, -0.02796572f, 0.18071419f, 0.26940623f, -0.12233440f, -0.37292606f, 0.36515215f, 0.63001394f, -0.03309152f, -0.13840219f, -0.00647037f, -0.09031934f, -0.08435103f, -0.48733488f, -0.03069797f, 0.23969592f, -0.01406846f, -0.23729505f, -0.09330855f, -0.01091891f, -0.69712913f, -0.04726740f, 0.35729808f, -0.08184044f, 0.12212564f, 0.08293632f, 0.14301479f, -0.04771174f, -0.40786561f, 0.05844451f, 0.27509692f, 0.33735201f, -0.19035414f, -0.00873442f, 0.82726449f, 0.06493616f, -0.23917076f, 0.25412980f, 0.13610269f, -0.14373341f, -0.11188008f, 0.19199708f, 0.25434899f, 0.05667140f, 0.22505784f, -0.33923429f, 0.13445528f, -0.41510907f, 0.01306641f, -0.27400836f, 0.04371536f, 0.09264086f, 0.01764994f, 0.11113425f, -0.54908949f, -0.14012992f, -0.14969786f, 0.13536204f, 0.48237458f, 0.31026548f, 0.12839794f, 0.16970989f, 0.35569528f, 0.25992310f, 0.07979116f, -0.07045773f, -0.14757848f, 0.19995320f, 0.33257610f, -0.30592969f, 0.34479067f, -0.13633373f, -0.32901531f, -0.22217582f, -0.03902102f, -0.28470969f, 0.45371965f, -0.14018375f, 0.00033177f, 0.02471597f, -0.13886261f, -0.26024067f, -0.05911886f, 0.38468748f, 0.10644892f, 0.64915150f, 0.23394774f, 0.05048691f, 0.24718988f, 0.10691528f, -0.36021236f, -0.07582128f, -0.03331834f, 0.56118315f, 0.14986324f, -0.01080798f, 0.06027322f, -0.17303193f, -0.02886931f, 0.20025595f, -0.08621155f, -0.16837399f, 0.03813467f, 0.16268502f, 0.13548586f, -0.12637927f, -0.05406130f, 0.28904071f, 0.40876710f, 0.48295635f, -0.00330632f, -0.10880156f, -0.11582652f, 0.01946758f, 0.14330173f, 0.18347012f, -0.15252267f, 0.02340567f, -0.00184444f, 0.41740009f, 0.03816881f, -0.18635799f, 0.06885060f, -0.69519073f, 0.12792788f, 0.31743917f, -0.35590082f, 0.04716548f, 0.41453162f, 0.20017979f, 0.17457853f, -0.10628710f, 0.11779454f, -0.22575814f, 0.39785933f, -0.04788093f, -0.33754739f, 0.28883764f, -0.01034037f, 0.09232285f, -0.12519236f, 0.38150299f, 0.36951417f, -0.30845818f, -0.16093434f, -0.13043834f, -0.00088348f, -0.43603748f, 0.57253271f, 0.20715633f, -0.23200637f, -0.08322587f, 0.26677662f, 0.16191387f, -0.12212937f, -0.17610665f, -0.34796056f, -0.01979011f, -0.14617229f, -0.42171431f, 0.07686885f, 0.11732378f, -0.03708031f, -0.11708410f, 0.27520463f, 0.14992967f, -0.35576105f, -0.24232602f, -0.10834695f, 0.51727569f, 0.04814369f, -0.02859325f, 0.32257569f, -0.10334946f, -0.22554295f, -0.13773614f, -0.19944151f, -0.69773078f, 0.06341445f, -0.07963808f, 0.33011547f, 0.19604796f, 0.05362617f, 0.43310285f, -0.09847115f, -0.27349082f, 0.27715036f, 0.02606288f, -0.26331300f, -0.07195780f, 0.09384046f, 0.04805859f, -0.00224824f, 0.36793631f, -0.26874509f, 0.13464956f, -0.18877320f, 0.44322565f, 0.19462514f, 0.03305284f, -0.29724783f, -0.10544499f, 0.08899305f, 0.20462318f, -0.04614055f, -0.26553869f, -0.23111953f, 0.34555286f, 0.21941121f, 0.01916061f, -0.06618455f, -0.14347219f, 0.54705489f, 0.10832404f, -0.41668829f, -0.01971250f, 0.41141871f, -0.02185935f, 0.03908483f, -0.20564675f, -0.12572384f, -0.12849490f, -0.15341140f, -0.18256202f, 0.16935970f, -0.36639270f, 0.26792005f, 0.26742548f, 0.27960265f, 0.08317728f, 0.43922582f, 0.16384938f, 0.09993898f, -0.14854482f, -0.97371787f, 0.01855611f, 0.07415106f, 0.01467354f, 0.26632577f, 0.19221108f, -0.13503283f, -0.24824230f, 0.05469010f, -0.16026606f, -0.22515862f, -0.13446625f, -0.06384496f, 0.15654175f, -0.04609719f, 0.87014610f, 0.10316414f, 0.01212162f, -0.20465976f, 0.02332930f, 0.02613422f, -0.43154985f, 0.05967544f, -0.41571358f, -0.24346747f, -0.15642843f, -0.22451288f, -0.06348225f, 0.27811834f, 0.15205839f, -0.22718106f, -0.07130486f, 0.42280322f, -0.00245555f, -0.29546809f, -0.03388639f, -0.27988544f, -0.07985609f, -0.08335237f, 0.26234987f, 0.38404912f, -0.04267483f, 0.08411781f, 0.09894442f, -0.23113041f, 0.23910309f, -0.18018682f, -0.04156974f, 0.02597089f, -0.36646831f, -0.13558583f, 0.14154512f, 0.34899536f, 0.09442890f, -0.06150077f, -0.76090306f, 0.09308454f, 0.34807199f, 0.17096758f, -0.09091965f, -0.15802057f, -0.12191233f, 0.10046732f, -0.03310317f, 0.45175654f, 0.02641513f, -0.50938332f, -0.22730273f
};

// Shape: 32
static const float layer1_bias[32] = {
    -0.08113156f, 0.06796169f, -0.06188839f, -0.01645141f, -0.02606429f, 0.02394129f, -0.02826995f, 0.00089502f, 0.01665475f, 0.02621319f, -0.00874745f, -0.06374590f, 0.02369145f, -0.02127098f, -0.00693353f, 0.02973155f, -0.10336012f, -0.01242414f, -0.01327410f, -0.00037889f, 0.02284973f, 0.05090871f, -0.02615934f, 0.04831532f, 0.01646520f, -0.00878596f, 0.03888458f, 0.03528236f, 0.02436406f, -0.00645780f, 0.02671129f, -0.01422615f
};

// Shape: 2 x 32
static const float layer2_weight[64] = {
    0.01784313f, -0.00793084f, 0.06215746f, 0.00081820f, -0.00955181f, 0.00022931f, -0.00176709f, -0.06085293f, -0.04972116f, 0.03206591f, -0.00214443f, 0.04687671f, 0.01318063f, 0.00185887f, -0.00331058f, -0.00260025f, 0.00267961f, -0.00606990f, -0.01389184f, 0.03618009f, -0.01125261f, 0.07851096f, 0.03691553f, 0.07789353f, -0.00167928f, 0.00065672f, 0.01890611f, -0.02850488f, -0.00023953f, -0.05703522f, 0.00009481f, -0.00233058f, 0.01159735f, -0.00891630f, 0.00042907f, 0.00451725f, -0.00474691f, 0.00186515f, 0.00157205f, -0.03963677f, 0.00212835f, 0.03318482f, -0.00104384f, 0.03650202f, 0.01889814f, -0.00001442f, -0.01683152f, -0.00010637f, 0.00152977f, -0.00640131f, 0.05118260f, 0.02165631f, -0.06056199f, 0.04294625f, 0.04394453f, 0.03307103f, -0.00101191f, 0.00118669f, -0.00984452f, -0.02981038f, 0.00114638f, -0.09782866f, 0.00040971f, -0.00292153f
};

// Shape: 2
static const float layer2_bias[2] = {
    -0.00774168f, -0.00650063f
};

/**
 * DNN forward pass.
 * obs:    input array  [4] — [pitch, pitch_rate, wheel_vel_left, wheel_vel_right]
 * output: output array [2] — [left_motor, right_motor], range approx [-1, 1]
 *
 * Note: clamp output to [-1, 1] before sending to motor driver.
 */
static inline void actor_forward(const float* obs, float* output) {
    float buf0[32];
    float buf1[32];
    const float* in  = obs;
    float*       out = buf0;

    // Layer 0: 4 -> 32, activation=tanh
    for (int o = 0; o < 32; o++) {
        float acc = layer0_bias[o];
        for (int j = 0; j < 4; j++)
            acc += layer0_weight[o * 4 + j] * in[j];
        out[o] = tanhf(acc);
    }
    in  = out;
    out = (out == buf0) ? buf1 : buf0;

    // Layer 1: 32 -> 32, activation=tanh
    for (int o = 0; o < 32; o++) {
        float acc = layer1_bias[o];
        for (int j = 0; j < 32; j++)
            acc += layer1_weight[o * 32 + j] * in[j];
        out[o] = tanhf(acc);
    }
    in  = out;
    out = (out == buf0) ? buf1 : buf0;

    // Layer 2: 32 -> 2, activation=none (output layer)
    for (int o = 0; o < 2; o++) {
        float acc = layer2_bias[o];
        for (int j = 0; j < 32; j++)
            acc += layer2_weight[o * 32 + j] * in[j];
        out[o] = acc;
    }
    for (int o = 0; o < 2; o++)
        output[o] = out[o];

}