// DO NOT EDIT: Auto-generated actor network weights
// Source: actor.onnx
// Generated by onnx_dnn_to_c.py

#pragma once
#include <math.h>  // for tanhf()

#define ACTOR_OBS_SIZE    6
#define ACTOR_ACTION_SIZE 2
#define ACTOR_NUM_LAYERS  3

// Shape: 32 x 6
static const float layer0_weight[192] = {
    0.88774228f, -0.02851644f, -0.37772495f, 0.29738903f, -0.49984044f, -0.74267936f, 0.55407816f, 0.24664780f, 0.31271484f, 0.00209748f, 0.59166968f, -0.05644244f, -0.40757257f, -0.03007785f, -0.13299914f, -0.08904810f, -0.74039447f, -0.81054246f, 1.54885471f, 0.32135239f, 0.06419469f, -0.00131360f, -0.72412384f, 0.62540591f, -0.42756501f, 0.02879543f, 0.02950485f, 0.01320180f, -0.24745983f, 0.76903427f, -0.58558446f, -0.35796806f, 0.04853956f, -0.06500497f, 0.04591052f, 0.44508314f, 1.45059681f, 0.22015603f, 0.01155748f, 0.03951630f, -0.72952622f, -0.30013552f, -0.50971752f, -0.07260669f, 0.19858232f, -0.28331774f, 1.13134992f, 0.43435097f, -0.89840078f, 0.25426462f, 0.04521951f, -0.08327290f, 0.75563723f, 0.47747204f, -1.32462728f, -0.47877532f, -0.00702075f, -0.06178711f, 0.84626228f, -0.70441121f, -0.27346382f, -0.19703826f, -0.33447173f, -0.44782108f, 0.56365520f, -0.28412613f, -0.35443676f, -0.17352763f, -0.04092437f, 0.25859770f, -0.10850904f, 0.40733781f, 1.09028864f, 0.21786855f, -0.04424747f, 0.06353246f, -0.37313077f, -0.28013736f, 0.00169405f, 0.31813076f, 0.12649319f, -0.10363771f, -0.43940592f, 0.20324783f, 0.13737415f, -0.47857288f, -0.66643882f, -0.11091915f, -0.12613702f, 0.19985749f, -0.08993180f, -0.26907378f, -0.07047147f, 0.11223807f, -0.21152158f, 0.45965141f, 0.58484471f, 0.03735168f, 0.00027124f, 0.01359257f, -0.86856127f, -0.57902336f, -0.82037503f, -0.01749109f, -0.01531520f, 0.01246915f, 0.48112771f, 0.20511858f, 1.32195914f, -0.17102496f, 0.07502484f, -0.07751708f, -0.57950288f, 0.72577554f, -0.09453322f, 0.26392943f, 0.17376769f, -0.11613814f, -0.71700269f, -0.25263456f, 0.85775197f, 0.20370716f, 0.07550864f, -0.01997092f, -0.77932274f, 0.28992000f, -1.35380805f, -0.02316124f, -0.05870580f, -0.03188818f, 0.71476597f, 0.02459936f, 0.12740856f, -0.17433362f, -0.11819981f, 0.17705674f, 0.07867614f, -0.64173883f, -0.17004712f, -0.04075316f, 0.37156728f, 0.29755831f, 0.11777093f, -0.41507611f, -1.58147657f, -0.14785059f, -0.03330677f, -0.03958346f, 1.01850319f, 0.28682119f, 0.15143673f, 0.51544082f, -0.13158739f, 0.30913115f, -0.57476294f, -0.33041856f, -0.67702496f, -0.05912384f, 0.04093309f, -0.14341477f, 0.75220138f, 0.35093516f, -0.20236811f, -0.13687024f, 0.21050666f, -0.71364146f, -0.45426396f, -0.30873248f, -0.73317713f, 0.34722027f, -0.42778659f, 0.43191943f, 0.88102311f, -0.71826470f, 0.99114996f, 0.32156950f, -0.05579073f, 0.10528831f, -0.12557542f, -0.59206533f, 0.83852679f, 0.13859321f, 0.05051579f, -0.02674152f, -0.40344200f, -0.38989362f, 0.55570245f, 0.15299496f, 0.10825129f, -0.08852562f, -0.37198958f, 0.22766875f
};

// Shape: 32
static const float layer0_bias[32] = {
    -0.01365275f, 0.05786726f, 0.12119096f, -0.00023947f, -0.00253599f, -0.02235593f, 0.00557719f, -0.07326729f, -0.01537849f, -0.03364317f, 0.11454128f, 0.16464110f, -0.01071757f, -0.02205491f, 0.17781138f, 0.01704448f, -0.03871892f, -0.03004063f, 0.04798289f, 0.05352023f, -0.10059055f, -0.05687738f, 0.05984579f, 0.08987118f, 0.02243175f, -0.01688807f, 0.10556801f, -0.13511041f, 0.05299058f, -0.02974761f, -0.09102044f, 0.00064947f
};

// Shape: 32 x 32
static const float layer1_weight[1024] = {
    -0.03935533f, -0.20145515f, 0.27969399f, 0.31673682f, -0.04836493f, -0.45090067f, 0.25393340f, -0.05819458f, 0.12648048f, 0.10726609f, -0.26731181f, -0.43874946f, -0.37973160f, 0.18190081f, -0.14668840f, 0.47187838f, 0.03494063f, -0.08132035f, 0.22575717f, 0.02233844f, 0.15402214f, -0.02977331f, 0.08001318f, -0.16776575f, 0.14227702f, 0.02821684f, -0.24488570f, -0.18791738f, 0.02930588f, -0.44559282f, 0.36158514f, 0.08496979f, -0.06868435f, -0.05619710f, -0.18691187f, -0.05721668f, 0.52048379f, -0.03227596f, -0.02890941f, -0.10077997f, -0.14439860f, -0.48415706f, 0.04583007f, -0.38935015f, -0.28550875f, 0.05789819f, -0.49965042f, -0.05943929f, -0.41374114f, 0.07643922f, 0.57126904f, -0.14570123f, -0.26968527f, 0.03173782f, -0.12543361f, -0.05602465f, 0.20032749f, 0.07770935f, 0.10606084f, 0.38082331f, 0.13061056f, -0.33106545f, -0.08569446f, 0.46297601f, 0.37552390f, 0.53372741f, 0.33088699f, -0.53390276f, -0.18735012f, 0.01952993f, 0.31145138f, -0.34819028f, -0.16926417f, 0.58617705f, -0.05561794f, -0.22230043f, 0.09535823f, -0.03158398f, -0.01739580f, 0.07638814f, -0.09914632f, -0.28953031f, -0.53731155f, -0.08371006f, 0.10391489f, -0.10528479f, 0.01870410f, -0.32609811f, -0.27003443f, 0.18719651f, -0.23238972f, -0.14894876f, 0.25236166f, 0.14369901f, -0.10192513f, 0.39704096f, -0.30653739f, -0.18331279f, 0.13776588f, -0.14223179f, 0.44947612f, 0.15386826f, -0.27080044f, -0.07368248f, -0.01925899f, -0.05247027f, 0.30838165f, -0.22152027f, -0.27432659f, 0.02891692f, -0.10310488f, 0.01618097f, -0.11691161f, -0.76612294f, -0.34554386f, -0.02078315f, -0.00159857f, -0.06949282f, 0.33545324f, 0.22358377f, 0.08704004f, -0.03672548f, 0.17032926f, -0.14465292f, 0.23569918f, 0.24723227f, 0.30137241f, -0.30444461f, 0.10415275f, -0.27302995f, -0.03490690f, 0.32607332f, 0.07627735f, 0.15470627f, 0.06546515f, -0.44726935f, -0.07170373f, 0.31009591f, 0.37046230f, -0.06856952f, 0.28124109f, 0.55695271f, -0.02869486f, -0.14101946f, 0.32325080f, -0.03719575f, 0.00473367f, -0.29209846f, -0.07782556f, 0.21241292f, -0.24892655f, 0.43490005f, -0.32144421f, 0.58910006f, -0.09702136f, 0.04926094f, -0.29169187f, -0.21658024f, 0.15402281f, -0.08377584f, -0.22487704f, -0.22023472f, 0.26798490f, -0.41101873f, -0.38981101f, 0.03203563f, -0.18167910f, 0.09510576f, -0.33363402f, 0.24584652f, 0.58676755f, 0.36315313f, -0.24800175f, 0.15237281f, -0.12004805f, 0.23951209f, 0.04230136f, 0.09382150f, -0.29425803f, 0.31732076f, 0.30114859f, -0.03857215f, -0.22209705f, 0.30078110f, 0.28379837f, 0.15243921f, -0.14781258f, -0.14242327f, 0.54535842f, 0.10921686f, -0.20227528f, 0.37673801f, -0.02660720f, -0.36538064f, -0.01027340f, -0.45391852f, -0.08898577f, 0.47319010f, -0.03845837f, -0.05967264f, -0.02551793f, 0.15850076f, -0.22138993f, 0.12939271f, -0.44089624f, -0.19354542f, 0.06252539f, -0.19650027f, -0.02932579f, 0.21376851f, -0.42936927f, -0.59167904f, 0.26881936f, -0.08480906f, 0.11096495f, 0.11961704f, 0.20770694f, -0.33783412f, 0.04379034f, 0.13036565f, -0.25000176f, -0.57007211f, 0.15990984f, -0.00547371f, 0.12435621f, 0.12338371f, -0.51183331f, 0.35987914f, 0.10603021f, 0.15151596f, 0.25650761f, -0.05475117f, -0.48032352f, -0.03881220f, -0.12665543f, -0.01721206f, 0.02649456f, 0.40952343f, -0.17566964f, 0.17307910f, 0.37949222f, 0.07409158f, 0.11373267f, 0.28462708f, 0.16185945f, -0.53048956f, 0.27601352f, -0.09018973f, -0.37848419f, 0.03429844f, -0.00372026f, 0.06667504f, -0.12195084f, -0.47589895f, -0.46980888f, 0.03166727f, 0.11744008f, 0.16219358f, -0.03903712f, 0.31207722f, -0.30866176f, -0.37010330f, 0.10173292f, -0.15697648f, -0.43120953f, -0.07684070f, 0.18937802f, -0.12079021f, 0.15357614f, -0.31284231f, 0.01352530f, 0.26817915f, 0.29983574f, 0.35307908f, -0.35653135f, -0.11940415f, -0.56032878f, -0.49846312f, -0.04205914f, 0.05761484f, -0.50972944f, -0.07625104f, -0.12274118f, 0.32659310f, 0.14856340f, 0.08907997f, 0.41456074f, -0.27969322f, 0.31194040f, -0.23034649f, 0.40273532f, 0.09451589f, 0.59443021f, -0.27477267f, 0.21653321f, -0.02650638f, -0.10981034f, -0.67534417f, -0.01227793f, 0.15311354f, 0.00877655f, -0.20786633f, 0.24379045f, 0.24738781f, 0.16762358f, 0.15083435f, 0.39450526f, 0.32689828f, 0.23393545f, -0.39267409f, -0.02139404f, -0.08685789f, -0.76054680f, 0.24476740f, -0.19209012f, -0.10510606f, -0.22317769f, -0.37868753f, -0.12350227f, -0.22332682f, 0.01618746f, -0.17589661f, -0.16792805f, -0.73282868f, -0.26435757f, -0.27426410f, -0.38233227f, -0.15920217f, 0.47167939f, 0.29955354f, 0.09882104f, 0.02013988f, 0.08303416f, 0.00873138f, -0.11508528f, -0.01252924f, 0.41372478f, 0.13566633f, -0.00109218f, -0.00803128f, -0.40129903f, 0.07966853f, 0.70861471f, -0.07858076f, -0.03194325f, 0.26391032f, 0.16091579f, -0.00805636f, 0.17164910f, 0.20456211f, -0.07955394f, 0.38584220f, 0.05564252f, -0.07744359f, -0.13097201f, 0.01452842f, 0.40144137f, -0.15647566f, -0.34805441f, 0.76856148f, 0.32213894f, 0.49969724f, 0.02242654f, -0.10468513f, 0.30868092f, 0.09227408f, -0.09041722f, -0.01905552f, -0.29330269f, 0.20101027f, -0.43281949f, 0.00415771f, -0.08203238f, 0.10167317f, -0.21263123f, 0.10599034f, 0.40102649f, -0.10379890f, 0.62681854f, -0.24173975f, 0.25937974f, -0.46238071f, -0.12822174f, 0.17687309f, -0.04462888f, -0.09747567f, 0.30069941f, 0.04319925f, -0.16328983f, -0.11504479f, 0.10154685f, -0.19705382f, 0.09975728f, -0.23634586f, 0.22469382f, 0.08810009f, -0.16707857f, 0.04887342f, -0.55432189f, 0.41161594f, -0.16380908f, 0.08127213f, -0.43830964f, -0.07353835f, -0.49006084f, 0.68520969f, -0.09429564f, -0.17920607f, -0.33969089f, -0.12553613f, 0.00363949f, -0.23097549f, -0.41353118f, 0.21485917f, -0.27319992f, 0.00996234f, 0.39253905f, -0.03321662f, 0.16058122f, -0.01244847f, -0.11678036f, -0.17065579f, -0.05029565f, -0.20993590f, -0.10104744f, -0.17188965f, -0.31831646f, 0.24636166f, 0.29881024f, -0.13590422f, -0.16871695f, 0.19783717f, 0.19487192f, -0.29348019f, -0.31049004f, 0.13069430f, 0.12663412f, -0.10129597f, 0.02827555f, -0.11125277f, 0.28082871f, 0.52544487f, 0.25899825f, 0.52478600f, -0.46723130f, 0.15912686f, -0.20685560f, -0.01878323f, -0.14685722f, -0.35349962f, -0.21817619f, -0.49196663f, -0.29915899f, -0.03328212f, -0.22081569f, 0.08316246f, 0.01466649f, 0.51545596f, -0.27851710f, -0.09857196f, -0.59047705f, -0.18565625f, -0.07562695f, 0.12029821f, 0.16041419f, -0.11587971f, -0.18825950f, 0.04653496f, -0.20764346f, 0.02432876f, -0.43030041f, -0.22457662f, 0.38659635f, 0.49524021f, 0.48362523f, -0.21712130f, 0.11639757f, 0.33614996f, -0.17897440f, -0.23270167f, 0.16993842f, 0.02188579f, 0.05305827f, -0.33980566f, 0.06483614f, -0.21065655f, -0.23988345f, -0.42129374f, 0.38464880f, 0.20230566f, 0.26554322f, -0.04234080f, -0.01503726f, -0.13429680f, -0.57201821f, 0.09391497f, 0.25509417f, 0.34318134f, -0.35197273f, -0.01019669f, 0.56696737f, 0.01073717f, 0.09706049f, -0.09372468f, -0.03501226f, -0.23156583f, -0.17694752f, 0.09373737f, -0.06949577f, 0.35920835f, -0.07590316f, -0.39799201f, 0.03249765f, -0.22501963f, 0.08188271f, -0.27215758f, 0.11323526f, 0.00063086f, 0.20676740f, 0.16790318f, -0.35782981f, -0.19583002f, -0.15566023f, 0.02842172f, 0.46606532f, 0.29929110f, 0.00905744f, 0.26658484f, 0.33457527f, 0.01601668f, -0.30447084f, -0.04163346f, -0.33035117f, -0.00290006f, 0.22921258f, -0.01299880f, 0.55397099f, -0.46992096f, -0.16799945f, -0.21772657f, 0.07093287f, 0.49051520f, -0.00970245f, 0.11211613f, -0.00423699f, 0.15590827f, -0.35960728f, -0.14528318f, 0.03502600f, 0.41010538f, -0.21753767f, 0.81306356f, 0.26466855f, 0.03952314f, 0.15721640f, 0.25267550f, 0.08281673f, 0.12722184f, -0.32811770f, 0.24091046f, -0.10692681f, -0.23941945f, 0.18755256f, -0.14859407f, 0.07057926f, 0.03452380f, -0.07085932f, -0.52056462f, 0.18824686f, 0.01415774f, -0.19986765f, 0.08743474f, 0.12526388f, -0.10826895f, 0.18816139f, -0.16817866f, -0.00197006f, -0.00773144f, -0.10366609f, 0.14068162f, 0.27219671f, 0.07165901f, -0.36061040f, 0.17022577f, 0.23111236f, 0.24328122f, 0.34267232f, -0.17698486f, 0.08241736f, -0.56780624f, -0.11433177f, -0.09648628f, -0.33932865f, 0.17043842f, 0.16554604f, 0.25202730f, -0.16982882f, -0.05078430f, -0.06608339f, 0.02477593f, 0.91040820f, 0.06779040f, -0.37016290f, -0.22764610f, -0.19662686f, -0.00660327f, 0.10083444f, 0.15984508f, 0.58896178f, -0.42517471f, 0.10960916f, -0.33703089f, -0.23518090f, -0.40572545f, 0.44160360f, 0.43366215f, -0.07637972f, 0.32453805f, 0.27515158f, 0.24932282f, -0.07935207f, -0.18537004f, -0.08424911f, -0.33556396f, -0.09433506f, -0.09506913f, -0.15800972f, -0.22969979f, -0.19817494f, 0.19838808f, 0.33821258f, 0.10188296f, 0.16241522f, 0.10236973f, -0.24395412f, 0.49201602f, 0.34638557f, 0.25241110f, -0.19865140f, -0.35404518f, -0.33062550f, 0.06746919f, -0.33271354f, -1.03697217f, 0.26350486f, 0.02024464f, 0.09096000f, 0.03270697f, -0.08518771f, 0.67499292f, -0.05829167f, -0.17298807f, 0.12115306f, 0.18739137f, 0.25549495f, 0.26813009f, -0.15189779f, 0.26761365f, -0.28945518f, 0.33405197f, -0.05946526f, 0.55277658f, -0.17297816f, 0.19386145f, 0.26049328f, 0.19048199f, -0.09145743f, 0.11338529f, 0.05342453f, 0.05560942f, 0.15160915f, -0.33785850f, -0.07389139f, 0.38062987f, -0.02624040f, 0.08760522f, 0.04754055f, -0.34562099f, 0.27754405f, 0.16235493f, -0.27680233f, -0.07498499f, 0.46674487f, 0.03013130f, -0.06643244f, 0.03467046f, -0.00402969f, -0.01330270f, -0.09484077f, 0.14891937f, 0.22959527f, -0.30580717f, 0.36107486f, 0.09936700f, 0.48365775f, -0.15216455f, 0.46588612f, 0.01657923f, 0.49731305f, -0.33941054f, -0.35517934f, 0.08927885f, 0.00304456f, -0.13329057f, 0.24050014f, 0.31263560f, -0.06426921f, -0.18928145f, 0.14597064f, -0.29524907f, 0.16731542f, -0.12559456f, 0.12802365f, 0.35181853f, 0.12133029f, 0.61168301f, -0.06480052f, 0.35875943f, 0.04669223f, 0.09749880f, 0.03576870f, -0.16688342f, 0.20531222f, -0.18379271f, -0.15276375f, -0.48210838f, -0.49009842f, -0.05565524f, 0.11040277f, -0.29750791f, 0.20429125f, 0.15228002f, 0.13086005f, 0.03478255f, 0.35570475f, 0.02129203f, -0.46657619f, -0.06972606f, 0.03190005f, 0.26005554f, 0.14634669f, -0.14026919f, 0.11415993f, 0.32867312f, -0.03973263f, 0.02484554f, -0.08118467f, 0.02140338f, 0.21555942f, -0.31441662f, 0.10073168f, 0.39007640f, 0.31938645f, -0.07835703f, 0.20771106f, -0.52647752f, 0.39253426f, 0.03993881f, -0.03291928f, 0.18688102f, -0.27260000f, -0.04816728f, 0.07474086f, 0.33500138f, 0.08140764f, 0.22064877f, -0.10349870f, 0.32479808f, 0.28870961f, 0.22384782f, 0.22789510f, -0.59916121f, -0.16714834f, 0.03309192f, -0.94506544f, 0.07965363f, -0.33137062f, 0.17201193f, -0.09836078f, 0.11981748f, 0.02776077f, -0.38014925f, -0.25621653f, -0.05426890f, -0.17082424f, -0.09899649f, 0.04026125f, 0.03730999f, -0.11217599f, 0.78139371f, 0.11377976f, 0.23026986f, 0.50819695f, -0.05832486f, 0.30880013f, -0.18879132f, 0.31248808f, -0.37900427f, 0.19245970f, -0.21238390f, 0.10208856f, 0.48767203f, 0.05115658f, -0.69156295f, -0.08942287f, 0.04522577f, -0.41487283f, 0.52789539f, 0.35749602f, -0.23526013f, 0.20175038f, -0.42951366f, -0.25096774f, 0.04391418f, 0.14168981f, 0.19006637f, 0.05756332f, 0.00597818f, -0.05711164f, -0.41322970f, -0.15124214f, -0.01257327f, -0.22125022f, 0.47632018f, 0.62294149f, 0.15229759f, -0.10446983f, -0.20260961f, -0.13961829f, -0.13955209f, -0.36574838f, -0.10871591f, -0.35160705f, 0.28409478f, 0.10519731f, -0.00643380f, 0.32807177f, -0.41614869f, -0.50288087f, 0.00489165f, 0.07170480f, 0.36275670f, -0.03073159f, 0.18570587f, -0.16766813f, 0.05940321f, 0.26738235f, -0.24786943f, 0.11871546f, -0.15350081f, -0.08090463f, -0.07813250f, -0.28407654f, 0.36604753f, -0.08964954f, -0.21959108f, 0.56239545f, -0.19466095f, -0.22674024f, 0.05296094f, 0.14889528f, -0.26887348f, -0.60324895f, -0.09665476f, -0.59051830f, 0.14638415f, 0.12675783f, -0.12092055f, -0.23066464f, 0.15626462f, 0.06439429f, -0.06239309f, 0.07418346f, -0.27849287f, 0.08388054f, 0.14742640f, 0.30464959f, -0.25592992f, -0.27843577f, -0.24662232f, 0.35173807f, -0.13212278f, -0.06442935f, -0.22025213f, 0.03796905f, 0.09940903f, -0.08740475f, -0.44013974f, 0.33568329f, 0.34817532f, -0.03058879f, -0.04608100f, 0.09661403f, -0.81489527f, 0.06103240f, -0.25378606f, 0.19855498f, 0.24355805f, 0.12105945f, 0.13007587f, 0.46175393f, 0.21424402f, 0.33331609f, -0.04815242f, -0.18446630f, -0.09989754f, 0.12428465f, 0.09309075f, -0.36372542f, -0.21342532f, -0.07020319f, -0.37223455f, 0.76492095f, 0.04930827f, -0.25279146f, 0.13954677f, -0.07319053f, 0.14984496f, -0.09896424f, -0.12564781f, -0.40597811f, 0.29279253f, 0.05794333f, -0.03483577f, -0.07460904f, 0.19881161f, 0.43550104f, 0.38389143f, -0.00707005f, 0.15008271f, 0.39586973f, -0.02914717f, -0.12129831f, 0.21332484f, 0.66754913f, -0.05364516f, -0.03390582f, 0.31813008f, -0.19969042f, -0.26381937f, 0.01294432f, -0.19033359f, -0.39140895f, -0.20931669f, 0.62422162f, 0.11429419f, 0.14230569f, 0.18031050f, -0.03995398f, -0.20890830f, -0.01374504f, 0.26060218f, -0.28689325f, -0.29966974f, 0.22215459f, 0.06893411f, 0.30405328f, 0.14225528f, -0.09982444f, -0.34844488f, 0.20399250f, 0.17900929f, -0.72921962f, -0.05528494f, -0.13071707f, -0.15225558f, 0.43693358f, -0.13308561f, 0.22554603f, -0.19152008f, 0.26652586f, 0.04895725f, -0.01345776f, -0.32572919f, 0.19900507f, 0.19319049f, 0.21569383f, -0.44251564f, -0.14082623f, 0.35408735f, 0.07524763f, 0.14354660f, -0.11985636f, 0.20326547f, 0.27939788f, -0.39016506f, 0.09260283f, 0.05811214f, 0.05032742f, -0.42811149f, -0.07837238f, 0.10745255f, -0.05060435f, 0.35571337f, 0.17811069f, 0.05205637f, -0.02623082f, 0.34122118f, -0.20709249f, 0.34397948f, 0.51451391f, 0.18374573f, -0.14525266f, 0.21436207f, -0.42680675f, 0.16377902f, 0.28688332f, 0.32058981f, -0.16947031f, 0.20919034f, -0.11478039f, 0.19990449f, -0.20411712f, 0.45867890f, 0.36045933f, 0.18718249f, 0.63860929f, 0.17005116f, 0.10862842f, 0.34226653f, 0.27839062f, -0.13406502f, 0.24789861f, 0.00735640f
};

// Shape: 32
static const float layer1_bias[32] = {
    0.07648687f, -0.02724199f, 0.00564644f, -0.04712887f, 0.05210979f, -0.07701461f, -0.05076077f, 0.12103318f, -0.03342995f, -0.06002561f, -0.04463315f, -0.05244695f, -0.02485459f, -0.03400778f, 0.02786597f, 0.12545238f, -0.00637074f, 0.13676079f, 0.00867247f, -0.00210970f, 0.04768368f, -0.10304318f, -0.09383351f, 0.07190385f, -0.04559713f, 0.00495382f, 0.02852600f, 0.01126605f, 0.00117156f, -0.06368161f, -0.04728847f, -0.09691098f
};

// Shape: 2 x 32
static const float layer2_weight[64] = {
    -0.00222462f, -0.02587227f, 0.05154026f, -0.00562694f, 0.01480415f, -0.01400244f, -0.05050810f, 0.05781631f, 0.06127261f, 0.01494812f, 0.01239874f, -0.10892454f, -0.00743240f, 0.02068769f, -0.00272419f, 0.02034534f, 0.00088128f, -0.02397809f, -0.05128472f, 0.02324352f, -0.03337054f, -0.02040062f, -0.00485319f, 0.00704280f, -0.08316633f, -0.04005888f, -0.08945449f, -0.00208492f, 0.04911094f, 0.05709795f, 0.01129335f, -0.04376760f, -0.01131320f, 0.02316158f, -0.05384126f, -0.00461952f, -0.01628368f, -0.02814398f, -0.05093843f, 0.06675879f, -0.00620422f, 0.09587575f, -0.03400525f, -0.06784055f, -0.02863239f, -0.00591398f, -0.01086560f, -0.02078654f, -0.01101227f, 0.01571984f, -0.01895783f, -0.07840328f, -0.08990804f, -0.00217960f, 0.00387302f, 0.00923330f, -0.09934457f, -0.04111812f, -0.06229528f, -0.00718606f, 0.01278073f, -0.01828071f, -0.01597584f, -0.03125966f
};

// Shape: 2
static const float layer2_bias[2] = {
    -0.00954156f, -0.01286488f
};

/**
 * DNN forward pass.
 * obs:    input array  [6]
 * output: output array [2]
 *
 * Note: clamp output to [-1, 1] before sending to motor driver.
 */
static inline void actor_forward(const float* obs, float* output) {
    float buf0[32];
    float buf1[32];
    const float* in  = obs;
    float*       out = buf0;

    // Layer 0: 6 -> 32, activation=tanh
    for (int o = 0; o < 32; o++) {
        float acc = layer0_bias[o];
        for (int j = 0; j < 6; j++)
            acc += layer0_weight[o * 6 + j] * in[j];
        out[o] = tanhf(acc);
    }
    in  = out;
    out = (out == buf0) ? buf1 : buf0;

    // Layer 1: 32 -> 32, activation=tanh
    for (int o = 0; o < 32; o++) {
        float acc = layer1_bias[o];
        for (int j = 0; j < 32; j++)
            acc += layer1_weight[o * 32 + j] * in[j];
        out[o] = tanhf(acc);
    }
    in  = out;
    out = (out == buf0) ? buf1 : buf0;

    // Layer 2: 32 -> 2, activation=none (output layer)
    for (int o = 0; o < 2; o++) {
        float acc = layer2_bias[o];
        for (int j = 0; j < 32; j++)
            acc += layer2_weight[o * 32 + j] * in[j];
        out[o] = acc;
    }
    for (int o = 0; o < 2; o++)
        output[o] = out[o];

}